Current Latitude (deg N),Current Longitude (deg E),CELL RSSI (%)
35.9243464,-84.323624,-1
35.9243464,-84.323624,-1
35.9243464,-84.3236238,-1
35.9243464,-84.3236236,-1
35.9243463,-84.3236236,-1
35.9243463,-84.3236235,-1
35.9243463,-84.3236234,-1
35.9243463,-84.3236232,-1
35.9243464,-84.323623,-1
35.9243463,-84.3236229,-1
35.9243462,-84.3236227,-1
35.9243461,-84.3236225,-1
35.9243459,-84.3236225,-1
35.9243456,-84.3236229,-1
35.9243454,-84.3236232,57
35.9243452,-84.3236233,57
35.9243449,-84.3236234,57
35.9243447,-84.3236234,57
35.9243445,-84.3236238,57
35.9243444,-84.3236238,57
35.9243442,-84.3236238,57
35.924344,-84.3236237,57
35.9243439,-84.3236236,57
35.9243439,-84.3236232,57
35.9243438,-84.323623,57
35.9243439,-84.3236229,58
35.9243439,-84.3236227,58
35.924344,-84.3236225,58
35.9243442,-84.3236225,58
35.9243444,-84.3236225,58
35.9243446,-84.3236226,58
35.9243449,-84.3236225,59
35.9243452,-84.3236225,59
35.9243456,-84.3236226,59
35.9243459,-84.3236227,59
35.9243463,-84.3236228,59
35.9243466,-84.3236229,59
35.924347,-84.3236229,59
35.9243473,-84.323623,59
35.9243476,-84.3236231,59
35.9243479,-84.3236233,59
35.9243482,-84.3236233,59
35.9243484,-84.3236235,59
35.9243485,-84.3236238,59
35.9243486,-84.323624,59
35.9243487,-84.3236243,59
35.9243488,-84.3236244,59
35.9243488,-84.3236245,59
35.9243489,-84.3236247,59
35.924349,-84.3236248,59
35.9243491,-84.323625,59
35.9243492,-84.3236251,59
35.9243494,-84.3236252,59
35.9243495,-84.3236253,59
35.9243498,-84.3236253,59
35.9243501,-84.3236253,59
35.9243505,-84.3236253,59
35.9243509,-84.3236252,57
35.9243513,-84.3236252,57
35.9243518,-84.3236253,57
35.9243522,-84.3236254,57
35.9243527,-84.3236257,57
35.9243531,-84.323626,57
35.9243534,-84.3236264,58
35.9243539,-84.323627,58
35.9243542,-84.3236275,58
35.9243545,-84.3236279,58
35.9243548,-84.3236285,58
35.9243552,-84.3236293,58
35.9243555,-84.3236299,58
35.9243559,-84.3236304,58
35.9243563,-84.323631,58
35.9243567,-84.3236316,58
35.924357,-84.3236321,60
35.9243573,-84.3236327,60
35.9243575,-84.3236332,60
35.9243577,-84.3236336,60
35.9243579,-84.323634,60
35.924358,-84.3236343,60
35.924358,-84.3236345,60
35.924358,-84.3236347,60
35.924358,-84.3236349,60
35.9243578,-84.323635,60
35.9243576,-84.3236352,60
35.9243573,-84.3236353,59
35.924357,-84.3236354,59
35.9243567,-84.3236355,59
35.9243564,-84.3236356,59
35.924356,-84.3236357,59
35.9243556,-84.3236359,59
35.9243553,-84.323636,59
35.924355,-84.3236362,59
35.9243547,-84.3236364,59
35.9243544,-84.3236365,59
35.9243541,-84.3236367,60
35.9243538,-84.3236369,60
35.9243536,-84.3236371,60
35.9243532,-84.3236371,60
35.9243529,-84.3236372,60
35.9243526,-84.3236373,60
35.9243524,-84.3236374,60
35.9243521,-84.3236376,60
35.9243519,-84.3236378,60
35.9243517,-84.323638,60
35.9243515,-84.3236382,60
35.9243513,-84.3236384,60
35.9243512,-84.3236385,60
35.9243511,-84.3236386,60
35.924351,-84.3236387,60
35.924351,-84.3236387,60
35.9243509,-84.3236386,60
35.924351,-84.3236385,60
35.924351,-84.3236384,60
35.9243511,-84.3236382,60
35.9243512,-84.3236379,60
35.9243513,-84.3236376,60
35.9243514,-84.3236372,60
35.9243514,-84.3236367,60
35.9243514,-84.3236361,60
35.9243514,-84.3236357,60
35.9243514,-84.3236352,60
35.9243513,-84.3236347,60
35.9243512,-84.3236344,60
35.924351,-84.3236341,60
35.924351,-84.323634,60
35.9243509,-84.3236338,60
35.9243509,-84.3236337,60
35.9243508,-84.3236336,60
35.9243508,-84.3236334,60
35.9243507,-84.3236332,60
35.9243507,-84.3236329,60
35.9243505,-84.3236328,60
35.9243504,-84.3236327,60
35.9243501,-84.3236327,59
35.9243498,-84.3236326,59
35.9243494,-84.3236325,59
35.924349,-84.3236323,59
35.9243484,-84.3236321,59
35.9243479,-84.3236317,59
35.9243472,-84.3236313,60
35.9243466,-84.3236308,60
35.9243459,-84.3236302,60
35.9243453,-84.3236297,60
35.9243448,-84.323629,60
35.9243443,-84.3236284,59
35.9243438,-84.3236278,59
35.9243433,-84.3236272,59
35.9243427,-84.3236267,59
35.9243422,-84.3236262,59
35.9243417,-84.3236256,59
35.9243412,-84.3236251,59
35.9243407,-84.3236246,59
35.9243403,-84.3236242,59
35.9243398,-84.3236238,59
35.9243395,-84.3236235,59
35.9243392,-84.3236231,59
35.924339,-84.3236226,59
35.9243387,-84.3236222,59
35.9243385,-84.3236218,59
35.9243384,-84.3236215,59
35.9243384,-84.3236212,59
35.9243383,-84.3236211,59
35.9243383,-84.3236211,59
35.9243384,-84.3236213,59
35.9243386,-84.3236216,59
35.9243388,-84.323622,59
35.9243391,-84.3236224,59
35.9243394,-84.3236228,59
35.9243398,-84.3236232,59
35.9243401,-84.3236236,59
35.9243408,-84.3236241,60
35.924342,-84.3236249,60
35.9243494,-84.32363,60
35.9243565,-84.323641,60
35.9243618,-84.3236522,60
35.9243653,-84.323663,60
35.9243667,-84.3236702,56
35.9243663,-84.3236715,56
35.9243665,-84.3236697,56
35.9243636,-84.3236615,56
35.9243612,-84.323646,56
35.9243611,-84.323627,51
35.9243647,-84.323605,51
35.924374,-84.3235801,51
35.9243902,-84.3235517,51
35.9244115,-84.3235217,51
35.9244371,-84.3234877,51
35.9244662,-84.3234496,53
35.9244976,-84.3234083,53
35.9245307,-84.3233623,53
35.9245649,-84.3233116,53
35.9246,-84.3232569,53
35.9246354,-84.3231992,54
35.924671,-84.3231404,54
35.9247073,-84.3230785,54
35.9247447,-84.3230135,54
35.9247811,-84.3229502,54
35.9248167,-84.3228905,55
35.9248491,-84.3228396,55
35.9248792,-84.3228001,55
35.9249092,-84.3227734,55
35.9249408,-84.3227603,55
35.9249726,-84.3227615,55
35.9250023,-84.3227733,51
35.9250273,-84.3227851,51
35.9250527,-84.3227893,51
35.9250814,-84.322782,51
35.9251127,-84.322757,51
35.9251423,-84.3227111,55
35.925168,-84.3226469,55
35.9251868,-84.3225735,55
35.925199,-84.3224994,55
35.9252049,-84.3224318,55
35.9252058,-84.3223704,54
35.9252025,-84.3223181,54
35.9251988,-84.3222682,54
35.9252023,-84.3222104,54
35.925218,-84.3221516,54
35.9252464,-84.3220966,55
35.9252889,-84.3220453,55
35.9253416,-84.3219971,55
35.9253995,-84.3219478,55
35.9254581,-84.3218979,55
35.9255138,-84.321847,55
35.9255597,-84.3217972,55
35.9255929,-84.3217512,50
35.9256135,-84.3217149,50
35.9256277,-84.321688,50
35.9256366,-84.3216714,50
35.925641,-84.3216636,50
35.9256426,-84.3216602,47
35.9256429,-84.3216598,47
35.9256431,-84.3216599,47
35.9256435,-84.32166,47
35.925644,-84.3216603,47
35.9256445,-84.3216606,47
35.9256449,-84.3216611,44
35.9256454,-84.3216616,44
35.9256458,-84.3216622,44
35.9256462,-84.3216627,44
35.9256468,-84.3216629,44
35.9256512,-84.3216551,45
35.9256625,-84.3216369,45
35.9256832,-84.3216145,45
35.9257131,-84.3215977,45
35.9257504,-84.3215935,45
35.9257898,-84.3216062,45
35.9258311,-84.3216354,45
35.9258778,-84.3216748,45
35.9259323,-84.3217187,45
35.9259935,-84.3217662,45
35.9260618,-84.3218189,45
35.9261353,-84.321877,48
35.9262144,-84.3219398,48
35.9262986,-84.3220065,48
35.9263877,-84.3220778,48
35.9264782,-84.3221503,48
35.9265683,-84.322223,53
35.9266552,-84.3222918,53
35.9267426,-84.3223586,53
35.9268261,-84.3224215,53
35.9269051,-84.322481,53
35.9269792,-84.3225373,47
35.9270431,-84.3225861,47
35.9270938,-84.3226251,47
35.9271337,-84.3226565,47
35.9271634,-84.3226799,47
35.9271814,-84.3226941,47
35.9271893,-84.3227,56
35.9271911,-84.3227015,56
35.9271912,-84.3227017,56
35.9271913,-84.3227016,56
35.9271915,-84.3227013,56
35.9271916,-84.3227007,56
35.9271917,-84.3227001,65
35.9271918,-84.3226995,65
35.9271918,-84.3226989,65
35.9271932,-84.3226996,65
35.9272023,-84.3227081,65
35.9272208,-84.3227276,65
35.927241,-84.3227619,65
35.9272551,-84.3228122,65
35.927258,-84.322875,65
35.927245,-84.3229485,65
35.9272142,-84.3230297,65
35.927168,-84.3231192,70
35.9271135,-84.3232188,70
35.927054,-84.3233278,70
35.92699,-84.3234453,70
35.926922,-84.3235713,70
35.9268493,-84.3237022,67
35.9267736,-84.3238415,67
35.9266972,-84.3239841,67
35.926618,-84.3241333,67
35.9265393,-84.324283,67
35.926458,-84.324434,61
35.9263774,-84.3245849,61
35.9262936,-84.3247403,61
35.9262083,-84.3248914,61
35.9261176,-84.3250397,61
35.9260237,-84.3251791,61
35.9259253,-84.3253051,61
35.9258193,-84.3254268,61
35.9257063,-84.3255393,61
35.9255872,-84.3256423,61
35.9254629,-84.3257382,66
35.9253365,-84.3258265,66
35.9252113,-84.325908,66
35.9250791,-84.3259908,66
35.9249429,-84.3260736,66
35.9248091,-84.3261534,66
35.9246763,-84.3262356,51
35.9245467,-84.3263233,51
35.9244151,-84.3264134,51
35.9242856,-84.3265051,51
35.9241616,-84.3265936,51
35.9240341,-84.3266817,51
35.9239084,-84.326769,51
35.9237829,-84.3268596,51
35.9236613,-84.32695,51
35.9235426,-84.3270447,51
35.9234321,-84.3271411,51
35.923329,-84.3272415,51
35.9232361,-84.3273418,53
35.9231494,-84.3274436,53
35.9230636,-84.327552,53
35.9229772,-84.3276677,53
35.9228914,-84.3277868,53
35.9228037,-84.3279112,48
35.9227153,-84.3280403,48
35.9226274,-84.3281677,48
35.9225351,-84.3282986,48
35.9224458,-84.3284295,48
35.9223533,-84.3285598,48
35.922261,-84.328688,56
35.922168,-84.3288205,56
35.9220756,-84.3289552,56
35.9219863,-84.3290854,56
35.9218999,-84.3292159,56
35.9218175,-84.3293426,59
35.9217395,-84.3294653,59
35.9216648,-84.3295831,59
35.9215894,-84.3296988,59
35.9215179,-84.3298145,59
35.9214499,-84.3299298,57
35.9213843,-84.3300435,57
35.9213188,-84.3301574,57
35.9212524,-84.3302721,57
35.9211837,-84.3303917,57
35.9211168,-84.3305087,53
35.9210501,-84.3306236,53
35.9209836,-84.3307373,53
35.9209176,-84.3308505,53
35.9208512,-84.3309647,53
35.9207858,-84.3310783,53
35.9207221,-84.3311899,53
35.9206594,-84.3312992,53
35.9205984,-84.3314042,53
35.9205396,-84.331504,53
35.9204825,-84.3316008,58
35.9204248,-84.3316978,58
35.9203658,-84.3317934,58
35.9203056,-84.331885,58
35.9202427,-84.3319739,58
35.9201768,-84.3320609,60
35.9201084,-84.3321484,60
35.9200386,-84.3322381,60
35.9199654,-84.3323321,60
35.9198905,-84.332427,60
35.9198116,-84.3325248,60
35.9197328,-84.3326251,56
35.9196518,-84.3327305,56
35.9195677,-84.3328409,56
35.9194811,-84.3329521,56
35.9193921,-84.333066,56
35.9193013,-84.3331839,59
35.9192103,-84.3333071,59
35.9191208,-84.3334344,59
35.9190309,-84.3335675,59
35.9189397,-84.3337047,59
35.9188464,-84.3338445,58
35.9187508,-84.3339866,58
35.9186526,-84.334132,58
35.9185515,-84.3342812,58
35.918451,-84.3344298,58
35.9183487,-84.3345819,58
35.9182468,-84.3347326,60
35.9181463,-84.3348807,60
35.9180484,-84.3350239,60
35.9179528,-84.3351629,60
35.9178628,-84.3352924,60
35.9177838,-84.3354057,55
35.9177104,-84.3355117,55
35.9176492,-84.3356046,55
35.9176038,-84.3356893,55
35.9175744,-84.3357665,55
35.9175603,-84.3358308,55
35.9175553,-84.3358839,55
35.9175552,-84.3359255,55
35.917558,-84.3359597,55
35.9175648,-84.3359998,55
35.9175798,-84.3360499,53
35.9176072,-84.3361083,53
35.9176487,-84.3361712,53
35.9177055,-84.336237,53
35.9177761,-84.3363089,53
35.9178595,-84.3363894,53
35.9179533,-84.3364777,46
35.9180566,-84.3365754,46
35.9181662,-84.3366799,46
35.9182858,-84.3367913,46
35.91841,-84.3369074,46
35.9185394,-84.3370287,36
35.918667,-84.3371488,36
35.9187994,-84.3372749,36
35.9189263,-84.3374037,36
35.9190374,-84.3375367,36
35.9191312,-84.3376807,38
35.9192022,-84.3378352,38
35.9192487,-84.3379978,38
35.9192711,-84.3381698,38
35.9192681,-84.3383429,38
35.9192439,-84.3385132,38
35.9192015,-84.3386841,40
35.9191512,-84.3388511,40
35.9191053,-84.3390202,40
35.9190721,-84.3391891,40
35.9190578,-84.3393558,40
35.9190671,-84.339527,39
35.9190962,-84.3396901,39
35.9191496,-84.3398497,39
35.9192218,-84.3399908,39
35.9193142,-84.3401199,39
35.9194223,-84.3402345,34
35.919546,-84.3403294,34
35.9196807,-84.3403995,34
35.9198263,-84.3404422,34
35.9199773,-84.3404548,34
35.9201323,-84.3404426,34
35.9202851,-84.3404151,34
35.9204426,-84.3403893,34
35.9205995,-84.340384,34
35.9207595,-84.3404061,34
35.9209176,-84.3404578,34
35.9210723,-84.3405322,38
35.9212233,-84.340619,38
35.9213763,-84.3407127,38
35.9215306,-84.3408074,38
35.9216855,-84.3409031,38
35.9218407,-84.3409995,39
35.9219929,-84.3411028,39
35.9221446,-84.3412047,39
35.922297,-84.3412989,39
35.9224478,-84.3413934,39
35.9225968,-84.341482,43
35.922747,-84.3415663,43
35.9229048,-84.3416306,43
35.9230653,-84.3416703,43
35.9232234,-84.3416783,43
35.9233828,-84.3416615,43
35.9235467,-84.3416246,39
35.9237077,-84.3415773,39
35.9238732,-84.3415241,39
35.9240365,-84.3414692,39
35.9242042,-84.3414115,39
35.9243661,-84.3413525,34
35.9245309,-84.3412882,34
35.9247007,-84.3412166,34
35.924869,-84.3411401,34
35.9250408,-84.3410557,34
35.9252126,-84.3409665,28
35.9253814,-84.3408783,28
35.9255483,-84.3407893,28
35.925713,-84.3406896,28
35.9258732,-84.340576,28
35.9260269,-84.3404531,28
35.9261737,-84.3403194,18
35.9263196,-84.3401809,18
35.9264637,-84.3400467,18
35.9266113,-84.3399136,18
35.9267624,-84.3397854,18
35.9269149,-84.3396589,18
35.9270659,-84.3395356,32
35.9272199,-84.3394127,32
35.9273709,-84.3392966,32
35.927517,-84.3391902,32
35.9276687,-84.3390907,32
35.9278209,-84.338998,31
35.9279707,-84.3389054,31
35.9281177,-84.3388053,31
35.9282593,-84.3386967,31
35.928393,-84.3385851,31
35.9285268,-84.3384691,31
35.928663,-84.3383555,27
35.9287993,-84.3382484,27
35.9289409,-84.3381544,27
35.9290855,-84.3380742,27
35.929233,-84.3380113,27
35.929382,-84.3379688,30
35.9295375,-84.337949,30
35.92969,-84.3379516,30
35.929845,-84.3379777,30
35.929998,-84.3380235,30
35.9301451,-84.3380881,29
35.9302859,-84.3381728,29
35.9304185,-84.3382783,29
35.9305385,-84.3384018,29
35.9306511,-84.3385418,29
35.9307568,-84.3386952,29
35.9308578,-84.338858,22
35.9309632,-84.3390166,22
35.9310642,-84.3391769,22
35.9311639,-84.3393359,22
35.9312659,-84.3394878,22
35.9313754,-84.339637,18
35.9314902,-84.3397821,18
35.9316101,-84.3399187,18
35.9317383,-84.3400462,18
35.9318744,-84.3401599,18
35.9320177,-84.3402645,-2
35.9321595,-84.3403719,-2
35.9323032,-84.3404735,-2
35.9324531,-84.3405733,-2
35.932604,-84.3406662,-2
35.9327592,-84.340748,-2
35.9329209,-84.3408186,-2
35.9330847,-84.3408854,-2
35.933252,-84.3409439,-2
35.9334237,-84.3409904,-2
35.9335969,-84.3410246,-2
35.9337695,-84.3410485,-2
35.9339446,-84.3410666,-2
35.9341142,-84.3410798,-2
35.9342843,-84.3410922,-2
35.9344514,-84.3411025,-2
35.9346191,-84.3411107,41
35.934782,-84.34112,41
35.9349435,-84.3411286,41
35.9351082,-84.3411337,41
35.9352698,-84.3411324,41
35.9354322,-84.3411257,41
35.9355934,-84.3411133,43
35.9357542,-84.3410941,43
35.935915,-84.3410675,43
35.9360747,-84.3410305,43
35.9362332,-84.3409925,43
35.9363945,-84.3409476,40
35.9365558,-84.3408984,40
35.9367157,-84.3408459,40
35.936874,-84.3407954,40
35.9370303,-84.3407466,40
35.9371868,-84.3406975,38
35.9373413,-84.3406478,38
35.937492,-84.3406005,38
35.9376416,-84.340554,38
35.9377881,-84.3405099,38
35.937933,-84.3404715,30
35.9380724,-84.3404481,30
35.9382053,-84.3404419,30
35.9383329,-84.3404549,30
35.9384555,-84.340487,30
35.9385717,-84.3405362,31
35.9386736,-84.3405944,31
35.9387627,-84.3406556,31
35.9388371,-84.3407189,31
35.9388871,-84.340786,31
35.938923,-84.340859,30
35.938943,-84.3409277,30
35.9389514,-84.3409848,30
35.938956,-84.3410314,30
35.9389598,-84.3410721,30
35.9389654,-84.3411048,22
35.938972,-84.3411262,22
35.938977,-84.3411382,22
35.9389797,-84.3411425,22
35.9389804,-84.3411425,22
35.9389811,-84.3411426,22
35.9389821,-84.3411427,15
35.9389832,-84.3411429,15
35.9389845,-84.3411431,15
35.9389858,-84.3411436,15
35.9389869,-84.3411441,15
35.9389881,-84.3411444,18
35.9389891,-84.3411447,18
35.9389901,-84.341145,18
35.9389909,-84.3411453,18
35.9389916,-84.3411455,18
35.9389922,-84.3411457,19
35.9389927,-84.3411456,19
35.938993,-84.3411456,19
35.9389935,-84.3411453,19
35.9389939,-84.3411451,19
35.9389939,-84.341145,19
35.9389935,-84.3411454,19
35.9389934,-84.3411453,19
35.9389933,-84.341145,19
35.938993,-84.3411449,19
35.9389926,-84.3411447,19
35.9389923,-84.3411445,19
35.9389921,-84.3411442,19
35.9389921,-84.3411438,19
35.938992,-84.3411435,19
35.9389921,-84.3411433,19
35.9389922,-84.3411433,19
35.9389923,-84.3411435,19
35.9389925,-84.3411437,19
35.9389927,-84.341144,19
35.9389929,-84.3411443,19
35.938993,-84.3411448,19
35.9389932,-84.341145,19
35.9389934,-84.3411453,19
35.9389934,-84.3411455,19
35.9389934,-84.341146,19
35.9389934,-84.3411461,19
35.9389933,-84.3411461,19
35.9389931,-84.3411461,19
35.9389929,-84.3411457,19
35.9389926,-84.3411456,19
35.9389925,-84.3411454,19
35.9389923,-84.3411453,-2
35.9389921,-84.3411449,-2
35.9389919,-84.3411445,-2
35.9389917,-84.3411438,-2
35.9389915,-84.3411431,-2
35.9389913,-84.3411422,34
35.938991,-84.3411413,34
35.9389907,-84.3411405,34
35.9389905,-84.3411396,34
35.9389903,-84.3411388,34
35.93899,-84.3411379,34
35.9389898,-84.341137,34
35.9389895,-84.3411362,34
35.9389892,-84.3411355,34
35.9389889,-84.3411347,34
35.9389887,-84.3411342,34
35.9389884,-84.3411338,34
35.9389881,-84.3411333,34
35.938988,-84.3411329,36
35.9389878,-84.3411325,36
35.9389878,-84.3411321,36
35.9389876,-84.3411317,36
35.9389874,-84.3411313,36
35.9389872,-84.3411311,35
35.938987,-84.3411307,35
35.9389866,-84.3411305,35
35.9389863,-84.3411303,35
35.9389861,-84.3411302,35
35.9389859,-84.3411301,35
35.9389856,-84.34113,34
35.9389856,-84.3411302,34
35.9389857,-84.3411303,34
35.9389859,-84.3411304,34
35.938986,-84.3411307,34
35.9389861,-84.3411311,34
35.9389868,-84.3411353,34
35.9389896,-84.3411477,34
35.9389963,-84.3411659,34
35.9390056,-84.3411849,34
35.9390165,-84.3412038,32
35.9390279,-84.3412199,32
35.9390388,-84.3412327,32
35.9390482,-84.3412424,32
35.9390554,-84.3412483,32
35.939058,-84.3412504,32
35.939058,-84.3412509,32
35.9390591,-84.3412536,32
35.9390649,-84.3412598,32
35.9390752,-84.3412678,32
35.9390864,-84.3412748,-2
35.9390977,-84.3412819,-2
35.9391111,-84.3412917,-2
35.9391323,-84.3413056,-2
35.9391631,-84.3413219,-2
35.9391987,-84.3413431,-2
35.9392392,-84.3413734,-2
35.9392869,-84.3414167,-2
35.9393431,-84.3414748,-2
35.9394093,-84.3415448,-2
35.9394891,-84.3416238,-2
35.9395762,-84.3417099,27
35.9396754,-84.3417987,27
35.9397867,-84.3418883,27
35.939913,-84.3419754,27
35.9400492,-84.3420554,27
35.9401905,-84.3421284,19
35.9403388,-84.342196,19
35.9404943,-84.3422649,19
35.9406517,-84.342337,19
35.9408135,-84.3424121,19
35.9409779,-84.3424919,18
35.9411425,-84.3425764,18
35.9413061,-84.3426678,18
35.9414717,-84.3427649,18
35.9416364,-84.3428673,18
35.9417994,-84.3429783,18
35.9419621,-84.3430963,18
35.9421225,-84.3432178,18
35.9422825,-84.3433466,18
35.9424387,-84.3434794,18
35.9425886,-84.3436156,18
35.9427339,-84.343759,18
35.9428738,-84.3439035,18
35.9430094,-84.3440517,18
35.9431413,-84.3442069,18
35.9432707,-84.3443711,18
35.9433922,-84.3445361,28
35.9435105,-84.3447094,28
35.943628,-84.3448883,28
35.9437419,-84.3450723,28
35.9438486,-84.3452607,28
35.9439439,-84.345446,26
35.944043,-84.3456419,26
35.9441377,-84.3458453,26
35.9442276,-84.3460503,26
35.9443064,-84.3462508,26
35.9443817,-84.3464589,26
35.9444519,-84.3466689,20
35.9445201,-84.3468851,20
35.9445849,-84.3471081,20
35.9446476,-84.3473275,20
35.9447052,-84.3475516,20
35.9447563,-84.3477782,23
35.9447997,-84.3480004,23
35.9448339,-84.3482196,23
35.9448619,-84.3484457,23
35.9448848,-84.3486734,23
35.9449009,-84.348894,48
35.9449115,-84.349126,48
35.9449173,-84.3493496,48
35.9449163,-84.3495822,48
35.9449098,-84.3498182,48
35.9448974,-84.3500517,-2
35.9448805,-84.350288,-2
35.9448582,-84.3505186,-2
35.9448313,-84.3507413,-2
35.9447977,-84.3509726,-2
35.9447563,-84.351197,-2
35.9447089,-84.3514272,-2
35.9446524,-84.3516575,-2
35.944589,-84.3518838,-2
35.9445236,-84.3521088,-2
35.9444548,-84.3523293,-2
35.9443853,-84.3525602,51
35.944318,-84.3527945,51
35.9442521,-84.3530226,51
35.9441867,-84.3532526,51
35.9441222,-84.3534845,51
35.9440625,-84.3537143,48
35.9440109,-84.3539474,48
35.9439681,-84.3541774,48
35.9439333,-84.3544051,48
35.9439032,-84.3546377,48
35.9438785,-84.3548747,48
35.9438595,-84.3551154,56
35.9438449,-84.3553554,56
35.9438332,-84.3555945,56
35.9438242,-84.3558327,56
35.9438164,-84.3560695,56
35.9438099,-84.3562934,58
35.9438045,-84.3565259,58
35.9437993,-84.356763,58
35.9437935,-84.3569968,58
35.9437885,-84.3572261,58
35.9437835,-84.3574677,58
35.9437781,-84.357706,58
35.9437728,-84.3579455,58
35.9437679,-84.3581806,58
35.9437637,-84.3584117,58
35.9437581,-84.3586424,58
35.9437521,-84.358873,59
35.9437469,-84.3591008,59
35.9437422,-84.3593321,59
35.9437383,-84.359561,59
35.9437353,-84.3597891,59
35.9437398,-84.3600129,59
35.9437587,-84.3602271,59
35.943796,-84.3604399,59
35.9438483,-84.3606424,59
35.9439131,-84.3608355,-2
35.9439891,-84.3610193,-2
35.9440762,-84.3611921,-2
35.9441774,-84.3613602,-2
35.944292,-84.3615199,-2
35.9444184,-84.3616651,13
35.9445515,-84.3617933,13
35.9446935,-84.3619096,13
35.9448415,-84.3620108,13
35.9449938,-84.3620966,13
35.9451524,-84.362166,13
35.9453178,-84.3622195,16
35.9454876,-84.3622594,16
35.945658,-84.3622919,16
35.9458293,-84.3623207,16
35.9459994,-84.3623473,16
35.946167,-84.3623763,38
35.94634,-84.3624069,38
35.9465122,-84.3624376,38
35.9466846,-84.3624696,38
35.9468617,-84.3625023,38
35.9470379,-84.3625351,41
35.9472197,-84.3625679,41
35.9474006,-84.3625997,41
35.94758,-84.3626325,41
35.9477607,-84.3626665,41
35.9479405,-84.3627007,41
35.9481217,-84.362735,45
35.9483046,-84.36277,45
35.9484882,-84.3628051,45
35.9486728,-84.3628408,45
35.9488541,-84.3628757,45
35.9490294,-84.3629097,43
35.9492075,-84.3629437,43
35.9493843,-84.362976,43
35.949563,-84.3630066,43
35.9497437,-84.3630377,43
35.9499253,-84.3630702,46
35.9501055,-84.3631029,46
35.9502863,-84.3631355,46
35.9504659,-84.3631661,46
35.9506483,-84.3631957,46
35.9508299,-84.3632253,46
35.9510137,-84.3632564,45
35.9512025,-84.3632893,45
35.951391,-84.3633225,45
35.9515796,-84.3633541,45
35.951766,-84.3633845,45
35.9519543,-84.3634134,44
35.9521412,-84.3634399,44
35.952325,-84.3634637,44
35.9525083,-84.3634859,44
35.9526935,-84.3635075,44
35.9528753,-84.3635278,47
35.9530543,-84.3635468,47
35.9532337,-84.3635655,47
35.9534079,-84.3635841,47
35.9535749,-84.3636029,47
35.953735,-84.3636192,47
35.9538865,-84.3636317,51
35.9540279,-84.3636367,51
35.9541545,-84.3636348,51
35.9542692,-84.3636296,51
35.9543713,-84.3636229,51
35.9544625,-84.3636177,59
35.9545455,-84.363614,59
35.95462,-84.3636107,59
35.9546864,-84.3636151,59
35.9547442,-84.3636357,59
35.9547964,-84.3636737,62
35.9548396,-84.363727,62
35.9548716,-84.3637918,62
35.9548941,-84.3638638,62
35.9549109,-84.3639474,62
35.954924,-84.3640389,62
35.954935,-84.3641332,69
35.9549435,-84.3642295,69
35.9549501,-84.3643301,69
35.9549563,-84.3644285,69
35.954963,-84.3645263,69
35.9549701,-84.3646235,69
35.9549775,-84.3647177,69
35.9549862,-84.3648097,69
35.9549961,-84.3648983,69
35.9550066,-84.3649796,69
35.9550177,-84.3650572,63
35.9550298,-84.3651331,63
35.9550422,-84.3652122,63
35.9550555,-84.3652956,63
35.9550716,-84.3653825,63
35.9550931,-84.3654731,63
35.9551187,-84.3655643,62
35.9551472,-84.3656565,62
35.9551784,-84.3657494,62
35.9552114,-84.3658392,62
35.9552474,-84.3659284,62
35.9552889,-84.3660218,61
35.9553332,-84.3661165,61
35.9553804,-84.3662107,61
35.9554319,-84.3663074,61
35.9554849,-84.3664024,61
35.9555375,-84.3664944,62
35.9555927,-84.3665855,62
35.9556509,-84.366675,62
35.9557103,-84.3667627,62
35.9557662,-84.3668425,62
35.9558111,-84.3669013,62
35.9558505,-84.3669378,63
35.9558844,-84.3669507,63
35.9559109,-84.3669459,63
35.9559338,-84.3669352,63
35.9559537,-84.3669274,63
35.955974,-84.3669266,63
35.9559945,-84.3669365,63
35.9560109,-84.3669562,63
35.9560195,-84.3669764,63
35.9560221,-84.3669895,63
35.9560225,-84.3669945,57
35.9560223,-84.3669954,57
35.956022,-84.3669959,57
35.9560219,-84.3669962,57
35.9560221,-84.3669964,57
35.9560224,-84.3669965,57
35.9560227,-84.3669964,59
35.9560231,-84.3669963,59
35.9560233,-84.3669962,59
35.9560236,-84.3669958,59
35.9560237,-84.3669955,58
35.9560239,-84.3669951,58
35.9560242,-84.3669948,58
35.9560245,-84.3669946,58
35.9560249,-84.3669943,58
35.9560252,-84.366994,58
35.9560257,-84.3669937,58
35.956026,-84.3669934,58
35.9560264,-84.3669931,58
35.9560268,-84.3669929,58
35.956027,-84.3669926,58
35.9560274,-84.3669924,58
35.9560277,-84.366992,58
35.9560279,-84.3669917,58
35.9560281,-84.3669915,58
35.9560283,-84.3669915,58
35.9560286,-84.3669915,58
35.9560289,-84.3669915,58
35.9560292,-84.3669915,58
35.9560295,-84.3669914,58
35.9560298,-84.3669912,58
35.95603,-84.3669908,58
35.9560301,-84.3669906,59
35.9560302,-84.3669904,59
35.9560303,-84.3669903,59
35.9560303,-84.3669901,59
35.9560303,-84.36699,59
35.9560302,-84.3669899,59
35.9560301,-84.3669897,58
35.95603,-84.3669896,58
35.9560299,-84.3669895,58
35.9560299,-84.3669895,58
35.9560298,-84.3669909,58
35.9560294,-84.3669955,58
35.9560275,-84.3670069,58
35.9560216,-84.3670234,58
35.9560077,-84.3670419,58
35.9559852,-84.3670581,58
35.9559599,-84.3670685,59
35.9559345,-84.3670746,59
35.9559036,-84.3670776,59
35.9558645,-84.3670749,59
35.95582,-84.3670596,59
35.9557735,-84.3670272,59
35.9557248,-84.366978,59
35.9556746,-84.3669156,59
35.9556214,-84.3668441,59
35.9555629,-84.366763,59
35.9555015,-84.366673,59
35.9554394,-84.3665729,65
35.9553769,-84.3664678,65
35.9553139,-84.3663592,65
35.9552536,-84.3662433,65
35.9551991,-84.3661253,65
35.9551494,-84.3660073,66
35.9551022,-84.3658825,66
35.9550599,-84.3657558,66
35.9550216,-84.3656266,66
35.9549876,-84.3654991,66
35.9549568,-84.3653742,66
35.954927,-84.3652482,64
35.9549004,-84.3651239,64
35.954877,-84.3649985,64
35.9548569,-84.3648733,64
35.9548386,-84.3647494,64
35.9548229,-84.3646244,60
35.9548107,-84.3644983,60
35.9548009,-84.364378,60
35.9547916,-84.3642677,60
35.9547817,-84.3641682,60
35.9547705,-84.3640881,63
35.9547565,-84.3640302,63
35.9547433,-84.3639947,63
35.9547337,-84.3639758,63
35.9547277,-84.3639668,63
35.9547255,-84.3639645,63
35.9547246,-84.3639652,63
35.9547241,-84.3639656,66
35.9547238,-84.363966,66
35.9547238,-84.3639659,66
35.9547237,-84.3639658,66
35.9547234,-84.3639655,66
35.954721,-84.3639619,70
35.9547112,-84.363947,70
35.954693,-84.36392,70
35.9546632,-84.3638881,70
35.95462,-84.3638592,70
35.954564,-84.3638355,70
35.9544962,-84.3638186,70
35.9544153,-84.3638087,70
35.954322,-84.3638045,70
35.9542189,-84.3638031,70
35.9541044,-84.3638002,69
35.9539782,-84.363795,69
35.9538425,-84.3637877,69
35.9536988,-84.3637768,69
35.9535478,-84.3637626,69
35.9533927,-84.3637448,69
35.9532351,-84.3637249,69
35.9530761,-84.3637027,69
35.9529129,-84.3636784,69
35.952744,-84.3636542,69
35.9525741,-84.3636294,64
35.952398,-84.3636037,64
35.9522179,-84.3635779,64
35.9520401,-84.363552,64
35.9518539,-84.3635264,64
35.9516641,-84.3635008,64
35.9514795,-84.3634758,53
35.9512852,-84.3634488,53
35.9510902,-84.3634213,53
35.9508931,-84.3633935,53
35.9506971,-84.3633656,53
35.9505025,-84.3633375,47
35.9503082,-84.3633097,47
35.9501085,-84.3632804,47
35.9499076,-84.3632509,47
35.9497107,-84.3632217,47
35.9495084,-84.3631912,47
35.9493051,-84.3631605,47
35.9491029,-84.3631309,47
35.9489045,-84.3631019,47
35.9487084,-84.3630718,47
35.9485129,-84.3630419,47
35.9483131,-84.3630108,48
35.9481099,-84.3629782,48
35.9479094,-84.3629458,48
35.9477033,-84.3629118,48
35.9474972,-84.3628778,48
35.947289,-84.3628426,46
35.9470815,-84.3628092,46
35.9468838,-84.3627801,46
35.9466738,-84.3627537,46
35.9464651,-84.3627356,46
35.9462513,-84.3627285,50
35.946044,-84.3627347,50
35.9458342,-84.3627583,50
35.9456296,-84.3628043,50
35.9454259,-84.3628709,50
35.9452265,-84.3629529,50
35.9450298,-84.3630506,53
35.9448419,-84.3631648,53
35.9446608,-84.3632971,53
35.9444889,-84.3634415,53
35.9443227,-84.3635922,53
35.9441548,-84.3637491,55
35.9439885,-84.3639049,55
35.9438198,-84.3640624,55
35.9436494,-84.3642203,55
35.9434904,-84.3643732,55
35.9433195,-84.3645328,45
35.9431481,-84.3646967,45
35.942983,-84.3648644,45
35.9428245,-84.3650335,45
35.9426703,-84.3652047,45
35.9425198,-84.3653743,45
35.9423736,-84.3655373,39
35.9422305,-84.3656945,39
35.9420927,-84.365844,39
35.9419667,-84.3659856,39
35.9418626,-84.3661284,39
35.9417856,-84.3662764,34
35.9417344,-84.3664359,34
35.9417102,-84.3666013,34
35.941714,-84.3667638,34
35.9417441,-84.3669208,34
35.9417985,-84.3670615,36
35.9418743,-84.3671824,36
35.9419678,-84.36728,36
35.9420787,-84.3673541,36
35.942203,-84.3674025,36
35.9423338,-84.3674225,36
35.9424694,-84.3674108,36
35.9426047,-84.3673607,36
35.9427317,-84.3672778,36
35.9428525,-84.3671691,36
35.9429681,-84.3670371,36
35.9430742,-84.3668909,45
35.943174,-84.3667267,45
35.9432625,-84.366548,45
35.9433393,-84.3663564,45
35.9433987,-84.3661581,45
35.9434418,-84.3659559,50
35.9434698,-84.3657441,50
35.9434836,-84.3655303,50
35.94349,-84.3653161,50
35.9434941,-84.3651014,50
35.9434982,-84.3648891,50
35.9435029,-84.3646803,44
35.9435079,-84.3644751,44
35.9435132,-84.3642594,44
35.9435183,-84.3640445,44
35.9435235,-84.3638298,44
35.9435294,-84.3636097,38
35.9435365,-84.3633847,38
35.9435428,-84.3631606,38
35.9435488,-84.3629262,38
35.9435544,-84.362688,38
35.9435602,-84.3624426,42
35.9435666,-84.3621909,42
35.9435731,-84.3619363,42
35.9435793,-84.3616758,42
35.9435846,-84.3614097,42
35.9435895,-84.361148,43
35.9435941,-84.3608841,43
35.9435996,-84.3606212,43
35.9436064,-84.3603556,43
35.9436129,-84.360093,43
35.9436188,-84.3598332,33
35.9436247,-84.35957,33
35.9436309,-84.3593131,33
35.9436376,-84.3590581,33
35.9436447,-84.3587963,33
35.9436518,-84.3585363,29
35.9436583,-84.3582785,29
35.943664,-84.3580211,29
35.9436691,-84.3577617,29
35.9436742,-84.3574988,29
35.9436795,-84.3572397,29
35.943685,-84.3569788,27
35.9436904,-84.3567244,27
35.9436951,-84.3564683,27
35.9437007,-84.3562072,27
35.9437077,-84.3559512,27
35.9437179,-84.3557002,21
35.9437344,-84.3554498,21
35.9437581,-84.3552033,21
35.9437878,-84.3549625,21
35.9438231,-84.3547233,21
35.9438648,-84.3544804,22
35.943911,-84.3542397,22
35.9439618,-84.3539993,22
35.9440169,-84.3537655,22
35.9440763,-84.3535369,22
35.9441382,-84.3533141,22
35.9442032,-84.3530905,21
35.9442688,-84.3528722,21
35.9443376,-84.3526536,21
35.9444069,-84.3524264,21
35.9444752,-84.352196,21
35.9445437,-84.3519643,22
35.9446078,-84.3517332,22
35.9446659,-84.351502,22
35.9447165,-84.3512699,22
35.9447627,-84.3510387,22
35.9448004,-84.3508071,19
35.9448294,-84.350576,19
35.9448533,-84.3503416,19
35.9448709,-84.3501081,19
35.9448816,-84.3498763,19
35.9448866,-84.3496407,19
35.9448906,-84.3493977,19
35.9448878,-84.3491552,19
35.9448787,-84.3489102,19
35.9448588,-84.3486646,19
35.9448304,-84.3484195,19
35.9447974,-84.3481702,19
35.9447574,-84.3479228,19
35.9447106,-84.3476783,19
35.9446541,-84.3474364,19
35.9445908,-84.3472027,19
35.9445208,-84.3469629,19
35.9444434,-84.3467212,19
35.9443612,-84.3464784,19
35.9442778,-84.3462502,19
35.9441861,-84.3460236,19
35.9440861,-84.3457898,44
35.9439812,-84.345568,44
35.9438697,-84.3453471,44
35.943749,-84.3451309,44
35.943619,-84.3449279,44
35.9434814,-84.3447212,48
35.9433391,-84.3445247,48
35.9431932,-84.3443358,48
35.9430388,-84.3441506,48
35.9428794,-84.3439716,48
35.9427175,-84.343803,48
35.9425521,-84.3436453,39
35.9423857,-84.3434946,39
35.942213,-84.3433456,39
35.9420371,-84.3432062,39
35.9418576,-84.3430744,39
35.9416786,-84.3429543,34
35.9414992,-84.3428371,34
35.9413061,-84.3427273,34
35.9411131,-84.3426225,34
35.9409117,-84.3425226,34
35.9407095,-84.3424262,28
35.9405118,-84.3423341,28
35.9403197,-84.3422431,28
35.94013,-84.3421514,28
35.9399489,-84.3420494,28
35.9397765,-84.3419299,28
35.939622,-84.3417959,20
35.9394839,-84.3416507,20
35.939358,-84.3414998,20
35.9392447,-84.3413422,20
35.939137,-84.3411768,20
35.9390324,-84.3410175,21
35.9389251,-84.3408701,21
35.9388066,-84.3407463,21
35.9386738,-84.3406527,21
35.9385286,-84.3405853,21
35.9383761,-84.3405404,19
35.938217,-84.3405239,19
35.938056,-84.340537,19
35.9378937,-84.3405716,19
35.937727,-84.3406159,19
35.9375569,-84.3406663,19
35.9373845,-84.3407191,34
35.9372113,-84.3407742,34
35.9370403,-84.3408284,34
35.9368722,-84.3408842,34
35.9367058,-84.3409402,34
35.9365367,-84.3409947,40
35.936369,-84.3410492,40
35.9362042,-84.3410981,40
35.9360362,-84.3411425,40
35.93587,-84.3411804,40
35.9357111,-84.3412092,41
35.9355533,-84.3412266,41
35.9354025,-84.341233,41
35.9352549,-84.3412374,41
35.9351078,-84.3412365,41
35.9349621,-84.341231,41
35.9348137,-84.3412239,39
35.934662,-84.3412148,39
35.9344997,-84.3412035,39
35.9343314,-84.3411887,39
35.9341581,-84.3411716,39
35.9339815,-84.3411518,36
35.9338032,-84.3411289,36
35.9336255,-84.3410874,36
35.9334364,-84.3410401,36
35.9332477,-84.3409822,36
35.9330583,-84.3409123,29
35.9328729,-84.3408291,29
35.932691,-84.3407355,29
35.932507,-84.3406268,29
35.932328,-84.3405094,29
35.9321528,-84.3403832,29
35.931982,-84.3402527,29
35.9318146,-84.3401235,29
35.931655,-84.3399824,29
35.9315074,-84.3398273,29
35.9313687,-84.3396597,29
35.9312483,-84.3394875,28
35.931129,-84.3393051,28
35.9310108,-84.3391177,28
35.9308984,-84.3389299,28
35.930796,-84.3387391,28
35.9306778,-84.3385676,27
35.9305564,-84.3384186,27
35.9304192,-84.3382869,27
35.9302727,-84.3381775,27
35.9301176,-84.3380915,27
35.9299537,-84.3380351,27
35.9297949,-84.3380038,26
35.9296283,-84.3379975,26
35.9294638,-84.338021,26
35.9293017,-84.338069,26
35.929141,-84.3381385,26
35.928986,-84.3382247,26
35.9288328,-84.3383285,26
35.9286859,-84.3384428,26
35.9285441,-84.3385606,26
35.9284027,-84.3386771,26
35.9282619,-84.3387887,28
35.9281177,-84.338893,28
35.9279631,-84.338996,28
35.9278052,-84.3390958,28
35.9276454,-84.3392004,28
35.9274837,-84.3393104,-2
35.9273249,-84.3394256,-2
35.9271659,-84.3395502,-2
35.9270067,-84.3396788,-2
35.92685,-84.3398086,-2
35.9266936,-84.3399367,-2
35.9265378,-84.3400743,100
35.9263864,-84.340212,100
35.9262386,-84.3403463,100
35.9260868,-84.3404795,100
35.9259306,-84.3406054,100
35.9257673,-84.3407223,100
35.9255967,-84.3408285,100
35.9254225,-84.3409269,100
35.925243,-84.3410203,100
35.9250631,-84.3411085,100
35.9248909,-84.3411889,35
35.9247152,-84.3412692,35
35.9245333,-84.3413385,35
35.9243511,-84.3414049,35
35.9241632,-84.3414786,35
35.9239847,-84.3415416,-2
35.923807,-84.3415985,-2
35.9236305,-84.3416472,-2
35.923457,-84.341685,-2
35.9232832,-84.3417054,-2
35.9231159,-84.3417015,-2
35.922949,-84.3416711,-2
35.9227859,-84.3416119,33
35.9226265,-84.341522,33
35.9224655,-84.3414192,33
35.9222993,-84.341314,33
35.9221321,-84.3412082,33
35.9219605,-84.3411007,42
35.9217838,-84.3409893,42
35.9216016,-84.3408757,42
35.9214226,-84.3407618,42
35.9212503,-84.3406532,42
35.9210832,-84.3405582,42
35.9209172,-84.3404835,42
35.9207524,-84.3404375,42
35.9205894,-84.3404267,42
35.9204274,-84.3404456,42
35.9202669,-84.3404748,42
35.9201124,-84.3404984,42
35.9199589,-84.3405049,42
35.9198037,-84.340486,42
35.9196563,-84.3404376,42
35.9195193,-84.3403617,42
35.9193924,-84.3402579,42
35.9192772,-84.3401247,42
35.9191828,-84.3399736,42
35.9191082,-84.3398057,42
35.919059,-84.3396234,42
35.919037,-84.3394339,33
35.9190438,-84.3392406,33
35.9190798,-84.3390525,33
35.9191325,-84.3388739,33
35.9191842,-84.3387033,33
35.9192274,-84.3385258,38
35.919251,-84.3383523,38
35.9192483,-84.3381705,38
35.9192142,-84.3379866,38
35.9191506,-84.3378094,38
35.9190602,-84.3376508,42
35.9189448,-84.337508,42
35.9188156,-84.3373766,42
35.9186795,-84.3372496,42
35.9185394,-84.3371195,42
35.9184013,-84.3369898,42
35.9182655,-84.3368582,40
35.9181345,-84.3367297,40
35.9180145,-84.3366081,40
35.9179014,-84.3364939,40
35.9177992,-84.3363919,40
35.9177079,-84.3363032,36
35.9176266,-84.3362247,36
35.9175606,-84.3361602,36
35.9175057,-84.3361065,36
35.9174589,-84.3360562,36
35.9174256,-84.3359992,36
35.9174114,-84.3359308,48
35.9174197,-84.3358578,48
35.9174475,-84.335788,48
35.9174926,-84.3357131,48
35.9175467,-84.3356337,48
35.9176073,-84.3355476,56
35.9176746,-84.3354526,56
35.9177461,-84.3353518,56
35.9178194,-84.3352492,56
35.9178929,-84.3351443,56
35.9179672,-84.335036,56
35.9180385,-84.3349287,52
35.9181124,-84.3348166,52
35.9181878,-84.3347026,52
35.9182642,-84.3345881,52
35.9183428,-84.3344727,52
35.9184215,-84.334356,-2
35.9185022,-84.3342367,-2
35.9185848,-84.3341132,-2
35.9186637,-84.333995,-2
35.9187455,-84.3338713,-2
35.9188287,-84.3337459,53
35.9189092,-84.333626,53
35.9189916,-84.3335044,53
35.9190737,-84.3333847,53
35.9191549,-84.333268,53
35.9192385,-84.3331524,53
35.9193213,-84.3330395,53
35.919404,-84.3329291,53
35.9194856,-84.3328201,53
35.9195622,-84.3327168,53
35.9196338,-84.3326185,53
35.9196979,-84.3325282,51
35.9197599,-84.33244,51
35.9198193,-84.3323551,51
35.9198762,-84.3322731,51
35.9199293,-84.332197,51
35.9199758,-84.3321298,48
35.9200174,-84.3320692,48
35.9200534,-84.3320171,48
35.9200834,-84.3319728,48
35.9201094,-84.331935,48
35.9201295,-84.3319052,45
35.9201427,-84.3318859,45
35.920151,-84.3318746,45
35.9201546,-84.3318697,45
35.9201548,-84.3318697,45
35.9201572,-84.3318672,45
35.9201654,-84.3318557,45
35.920182,-84.3318321,45
35.9202059,-84.3317954,45
35.9202355,-84.3317477,45
35.9202732,-84.331691,45
35.9203162,-84.331625,45
35.9203637,-84.3315529,45
35.9204157,-84.3314725,45
35.9204713,-84.3313872,45
35.9205315,-84.3312965,45
35.9205951,-84.3312012,45
35.9206619,-84.331102,45
35.9207321,-84.330996,45
35.9208043,-84.3308849,45
35.9208785,-84.3307685,45
35.9209556,-84.3306466,47
35.9210358,-84.3305176,47
35.9211185,-84.3303845,47
35.921204,-84.3302468,47
35.9212919,-84.3301059,47
35.9213853,-84.3299612,42
35.9214845,-84.3298093,42
35.921586,-84.3296518,42
35.9216916,-84.3294888,42
35.9217988,-84.3293225,42
35.9219121,-84.3291542,45
35.9220284,-84.3289819,45
35.9221444,-84.3288127,45
35.9222603,-84.3286416,45
35.9223761,-84.3284677,45
35.9224925,-84.3282938,45
35.9226103,-84.3281206,54
35.9227329,-84.3279498,54
35.9228566,-84.3277775,54
35.9229808,-84.3276134,54
35.9231072,-84.3274537,54
35.9232357,-84.3273025,47
35.9233677,-84.3271663,47
35.9235099,-84.3270394,47
35.9236583,-84.3269195,47
35.9238141,-84.3268035,47
35.9239747,-84.3266879,45
35.9241325,-84.3265732,45
35.9242985,-84.3264585,45
35.9244721,-84.326341,45
35.9246443,-84.3262252,45
35.9248151,-84.3261092,45
35.9249827,-84.3259967,45
35.9251467,-84.3258841,45
35.9253093,-84.3257693,45
35.9254646,-84.3256539,45
35.9256145,-84.3255294,47
35.9257578,-84.3253922,47
35.9258917,-84.3252405,47
35.9260134,-84.3250747,47
35.9261217,-84.3249038,47
35.9262276,-84.3247194,47
35.9263325,-84.3245301,57
35.926438,-84.3243376,57
35.9265423,-84.3241443,57
35.9266412,-84.3239604,57
35.9267358,-84.3237855,57
35.9268245,-84.3236241,61
35.9269061,-84.3234777,61
35.9269805,-84.3233452,61
35.9270448,-84.3232341,61
35.9271008,-84.3231363,61
35.9271457,-84.323051,65
35.9271759,-84.3229755,65
35.9271906,-84.3229024,65
35.927187,-84.3228298,65
35.9271604,-84.3227599,65
35.9271116,-84.3226996,63
35.9270502,-84.3226455,63
35.92698,-84.3225886,63
35.9269015,-84.3225267,63
35.9268169,-84.3224614,63
35.9267288,-84.3223936,67
35.9266347,-84.3223207,67
35.9265365,-84.3222439,67
35.9264374,-84.3221652,67
35.9263396,-84.3220875,67
35.9262426,-84.3220103,67
35.9261494,-84.321935,54
35.9260636,-84.3218677,54
35.9259836,-84.3218123,54
35.9259052,-84.3217704,54
35.9258271,-84.3217511,54
35.9257527,-84.3217535,58
35.925679,-84.3217739,58
35.9256069,-84.3218114,58
35.92554,-84.3218591,58
35.9254743,-84.3219162,58
35.9254081,-84.3219771,54
35.9253432,-84.322033,54
35.9252863,-84.3220802,54
35.9252421,-84.3221322,54
35.9252148,-84.3221944,54
35.9252058,-84.322266,50
35.9252081,-84.3223419,50
35.9252112,-84.3224254,50
35.9252086,-84.3225124,50
35.9251968,-84.322599,50
35.9251744,-84.3226782,50
35.9251428,-84.3227399,48
35.9251033,-84.3227778,48
35.9250588,-84.3227909,48
35.9250128,-84.322783,48
35.9249689,-84.3227722,48
35.9249261,-84.3227765,51
35.9248876,-84.3228018,51
35.9248549,-84.3228436,51
35.924823,-84.3228981,51
35.9247888,-84.3229591,51
35.9247509,-84.3230236,57
35.9247088,-84.3230942,57
35.9246647,-84.3231678,57
35.9246199,-84.3232401,57
35.9245761,-84.3233114,57
35.9245362,-84.3233795,57
35.9245021,-84.3234402,56
35.9244759,-84.3234912,56
35.9244578,-84.3235324,56
35.9244439,-84.323567,56
35.9244276,-84.3235943,56
35.9244046,-84.3236105,51
35.9243802,-84.3236116,51
35.9243644,-84.323604,51
35.9243588,-84.3235989,51
35.9243583,-84.3235984,51
35.924358,-84.3235988,55
35.9243579,-84.3235993,55
35.9243578,-84.3235998,55
35.9243577,-84.3236002,55
35.9243576,-84.3236006,55
35.9243575,-84.323601,55
35.9243574,-84.3236013,55
35.9243573,-84.3236016,55
35.9243574,-84.3236021,55
35.9243573,-84.3236027,55
35.9243573,-84.3236034,55
35.9243574,-84.3236043,55
35.9243575,-84.323605,55
35.9243576,-84.3236059,55
35.9243576,-84.3236068,55
35.9243575,-84.3236078,55
35.9243575,-84.3236088,54
35.9243574,-84.32361,54
35.9243574,-84.323611,54
35.9243574,-84.323612,54
35.9243574,-84.323613,54
35.9243575,-84.3236139,54
35.9243576,-84.3236149,54
35.9243577,-84.3236156,54
35.9243579,-84.3236163,54
35.9243582,-84.3236169,54
35.9243584,-84.3236174,55
35.9243587,-84.3236176,55
35.924359,-84.3236177,55
35.9243591,-84.3236178,55
35.9243592,-84.3236181,55
35.9243594,-84.3236184,55
35.9243597,-84.3236185,56
35.92436,-84.3236184,56
35.9243604,-84.323618,56
35.9243608,-84.3236176,56
35.9243611,-84.323617,56
35.9243615,-84.3236162,56
35.9243617,-84.3236155,55
35.9243617,-84.3236149,55
35.9243617,-84.3236144,55
35.9243615,-84.323614,55
35.9243613,-84.3236137,55
35.9243612,-84.3236133,55
35.9243611,-84.3236128,55
35.9243611,-84.3236124,55
35.9243611,-84.3236121,55
35.9243611,-84.3236117,55
35.924361,-84.3236112,55
35.9243609,-84.3236108,55
35.9243607,-84.3236103,55
35.9243604,-84.32361,55
35.92436,-84.3236096,55
35.9243596,-84.3236091,55
35.9243592,-84.3236087,57
35.9243589,-84.3236084,57
35.9243586,-84.3236082,57
35.9243584,-84.323608,57
35.9243582,-84.3236077,57
35.9243581,-84.3236075,55
35.9243582,-84.3236073,55
35.9243582,-84.323607,55
35.9243583,-84.3236067,55
35.9243585,-84.3236062,55
35.9243585,-84.323606,55
35.9243585,-84.3236057,55
35.9243585,-84.3236054,55
35.9243585,-84.3236051,55
35.9243585,-84.3236047,55
35.9243584,-84.3236046,55
35.9243583,-84.3236046,55
35.9243582,-84.3236046,55
35.924358,-84.3236047,55
35.9243578,-84.3236047,55
35.9243575,-84.3236047,55
35.9243572,-84.323605,56
35.9243569,-84.3236053,56
35.9243565,-84.3236058,56
35.9243561,-84.3236063,56
35.9243559,-84.3236066,56
35.9243557,-84.3236071,56
35.9243555,-84.3236077,56
35.9243554,-84.3236082,56
35.9243553,-84.3236088,56
35.924355,-84.3236095,56
35.9243549,-84.3236102,56
35.9243547,-84.3236108,54
35.9243544,-84.3236115,54
35.9243542,-84.323612,54
35.9243541,-84.3236126,54
35.9243539,-84.3236132,54
35.9243538,-84.3236138,55
35.9243538,-84.3236141,55
35.9243538,-84.3236145,55
35.9243538,-84.3236149,55
35.9243539,-84.3236151,55
35.9243541,-84.3236154,55
35.9243542,-84.3236155,56
35.9243543,-84.3236154,56
35.9243545,-84.3236157,56
35.9243546,-84.3236159,56
35.9243548,-84.3236162,56
35.9243547,-84.3236163,54
35.9243548,-84.3236165,54
35.924355,-84.3236168,54
35.9243551,-84.3236172,54
35.9243551,-84.3236177,54
35.9243552,-84.3236181,56
35.9243552,-84.3236186,56
35.9243551,-84.323619,56
35.9243552,-84.3236192,56
35.9243552,-84.3236194,56
35.9243552,-84.3236196,56
35.9243552,-84.3236197,55
35.9243551,-84.3236199,55
35.9243551,-84.32362,55
35.924355,-84.3236201,55
35.9243548,-84.3236202,55
35.9243547,-84.3236202,55
35.9243547,-84.32362,55
35.9243547,-84.3236196,55
35.9243546,-84.3236192,55
35.9243545,-84.3236185,55
35.9243545,-84.3236178,56
35.9243544,-84.3236172,56
35.9243544,-84.3236166,56
35.9243536,-84.3236207,56
35.9243563,-84.3236348,56
35.9243496,-84.3236494,55
35.9243464,-84.3236599,55
35.9243415,-84.3236704,55
35.924335,-84.3236796,55
35.9243297,-84.323689,55
35.9243253,-84.3237,55
35.9243199,-84.3237105,53
35.924315,-84.3237203,53
35.9243094,-84.3237312,53
35.9243041,-84.3237413,53
35.9242978,-84.323751,53
35.9242923,-84.32376,47
35.9242866,-84.3237697,47
35.9242806,-84.32378,47
35.9242747,-84.3237903,47
35.9242686,-84.3238004,47
35.9242631,-84.3238113,43
35.9242574,-84.3238227,43
35.9242517,-84.3238339,43
35.9242454,-84.3238456,43
35.9242387,-84.3238565,43
35.9242326,-84.3238672,43
35.9242295,-84.3238793,46
35.9242278,-84.3238876,46
35.9242241,-84.3238997,46
35.924217,-84.3239107,46
35.9242079,-84.3239206,46
35.924202,-84.3239286,48
35.9241943,-84.3239409,48
35.9241879,-84.3239514,48
35.9241826,-84.3239605,48
35.9241789,-84.3239686,48
35.9241705,-84.3239779,58
35.924161,-84.3239769,58
35.9241543,-84.3239722,58
35.9241455,-84.3239648,58
35.9241401,-84.3239607,58
35.9241344,-84.3239557,58
35.9241251,-84.3239492,57
35.9241182,-84.3239441,57
35.9241123,-84.3239399,57
35.9241025,-84.3239352,57
35.9240955,-84.3239299,57
35.9240875,-84.3239248,53
35.924076,-84.3239178,53
35.9240655,-84.3239127,53
35.9240546,-84.3239082,53
35.9240433,-84.3239067,53
35.9240333,-84.3239074,53
35.9240222,-84.3239098,53
35.9240119,-84.3239139,53
35.9240018,-84.3239199,53
35.9239932,-84.3239274,53
35.9239838,-84.3239384,53
35.9239758,-84.3239485,53
35.923968,-84.3239575,58
35.9239604,-84.3239664,58
35.9239535,-84.3239757,58
35.9239457,-84.3239865,58
35.9239395,-84.3239989,58
35.9239295,-84.3240083,58
35.9239155,-84.3240177,60
35.923898,-84.3240279,60
35.9238879,-84.3240328,60
35.9238782,-84.3240348,60
35.9238672,-84.3240355,60
35.9238563,-84.3240359,60
35.923845,-84.3240337,63
35.9238341,-84.3240302,63
35.923823,-84.3240241,63
35.9238128,-84.3240165,63
35.9238041,-84.3240066,63
35.9237963,-84.3239952,56
35.9237909,-84.3239816,56
35.9237866,-84.3239671,56
35.9237836,-84.3239514,56
35.9237829,-84.3239364,56
35.9237836,-84.3239213,55
35.9237859,-84.3239061,55
35.9237903,-84.3238915,55
35.9237858,-84.3238733,55
35.9237878,-84.3238591,55
35.923791,-84.3238436,55
35.9237972,-84.3238282,56
35.9238039,-84.3238147,56
35.9238082,-84.3238031,56
35.9238069,-84.3237939,56
35.9238119,-84.3237846,56
35.9238156,-84.3237771,47
35.9238218,-84.3237685,47
35.9238226,-84.323767,47
35.9238227,-84.3237671,47
35.9238236,-84.3237725,47
35.9238237,-84.323773,46
35.9238228,-84.3237742,46
35.9238174,-84.3237682,46
35.9238187,-84.3237599,46
35.9238169,-84.3237618,46
35.9238128,-84.3237634,48
35.9238085,-84.3237688,48
35.9238063,-84.3237671,48
35.9238032,-84.3237666,48
35.9238021,-84.3237686,48
35.9238023,-84.3237698,48
35.9238006,-84.3237667,43
35.9237967,-84.3237738,43
35.9237964,-84.3237797,43
35.9237871,-84.3237866,43
35.9237815,-84.3237955,43
35.9237821,-84.3238089,46
35.9237796,-84.3238208,46
35.9237772,-84.3238176,46
35.9237749,-84.3238132,46
35.9237748,-84.3238096,46
35.9237737,-84.3238076,43
35.923778,-84.3237985,43
35.9237777,-84.3237869,43
35.9237807,-84.3237939,43
35.9237832,-84.3237869,43
35.9237966,-84.3237973,43
35.9238039,-84.3238031,45
35.9238005,-84.3238062,45
35.9238031,-84.3238211,45
35.9238168,-84.3238206,45
35.9238405,-84.3238081,45
35.9238511,-84.3238106,45
35.9238534,-84.3238185,46
35.9238597,-84.3238284,46
35.9238702,-84.3238252,46
35.9238668,-84.3238225,46
35.9238714,-84.3238139,46
35.9238696,-84.3238077,59
35.9238688,-84.3237988,59
35.9238673,-84.3237939,59
35.923869,-84.3237857,59
35.9238799,-84.3237887,59
35.9238731,-84.3237565,61
35.9238813,-84.3237526,61
35.9238858,-84.3237522,61
35.9238899,-84.3237532,61
35.9239007,-84.3237524,42
35.923948,-84.323779,42
35.923954,-84.323778,42
35.9239555,-84.3237732,42
35.9239603,-84.3237812,42
35.923972,-84.3237817,44
35.9239921,-84.3237722,44
35.9240177,-84.3237696,44
35.9240326,-84.3237585,44
35.9240409,-84.3237359,44
35.9240386,-84.3237175,44
35.9240314,-84.3236853,44
35.9239975,-84.3235909,44
35.9240073,-84.3235848,44
35.9240031,-84.3235707,44
35.9240067,-84.3235587,44
35.9240335,-84.3234906,44
35.9240615,-84.3234287,44
35.9240615,-84.3234164,39
35.9240625,-84.3234063,39
35.9240631,-84.3234017,39
35.9240605,-84.32339,39
35.9240622,-84.3233853,39
35.9240636,-84.3233748,31
35.9240656,-84.3233514,31
35.9240695,-84.3233399,31
35.9240725,-84.3233303,31
35.924057,-84.3233955,31
35.924063,-84.3233788,27
35.9240636,-84.3233654,27
35.9240699,-84.3233478,27
35.9240712,-84.3233401,27
35.9240736,-84.3233313,27
35.9240745,-84.3233235,31
35.9240748,-84.3233153,31
35.9240745,-84.3233067,31
35.9240738,-84.3232982,31
35.9240728,-84.3232899,31
35.9240719,-84.323282,32
35.9240712,-84.3232743,32
35.9240707,-84.323267,32
35.9240704,-84.32326,32
35.9240702,-84.3232534,32
35.9240699,-84.3232472,32
35.9240697,-84.3232414,32
35.9240694,-84.3232359,32
35.9240692,-84.3232307,32
35.924069,-84.3232257,32
35.9240689,-84.3232213,32
35.9240688,-84.3232171,31
35.9240687,-84.3232132,31
35.9240687,-84.3232097,31
35.9240686,-84.3232065,31
35.9240684,-84.3232036,31
35.9240684,-84.323201,32
35.9240683,-84.3231986,32
35.9240682,-84.3231964,32
35.9240681,-84.3231944,32
35.9240682,-84.3231925,33
35.9240682,-84.3231909,33
35.9240682,-84.3231894,33
35.924068,-84.323188,33
35.9240679,-84.3231868,33
35.924068,-84.323186,33
35.9240681,-84.3231853,34
35.9240681,-84.3231845,34
35.9240681,-84.3231838,34
35.9240681,-84.3231832,34
35.9240681,-84.3231826,34
35.9240682,-84.3231824,33
35.9240683,-84.3231822,33
35.9240686,-84.3231822,33
35.924069,-84.3231825,33
35.9240695,-84.3231829,33
35.9240701,-84.3231835,30
35.9240707,-84.3231843,30
35.9240714,-84.3231852,30
35.9240722,-84.3231863,30
35.924073,-84.3231876,30
35.9240738,-84.3231889,30
35.9240746,-84.3231903,31
35.9240754,-84.3231918,31
35.9240763,-84.3231932,31
35.9240771,-84.3231944,31
35.9240781,-84.3231959,31
35.9240792,-84.3231976,32
35.9240803,-84.3231992,32
35.9240814,-84.3232009,32
35.9240825,-84.3232025,32
35.9240837,-84.3232043,32
35.9240848,-84.323206,32
35.9240857,-84.3232075,32
35.9240866,-84.3232088,32
35.9240875,-84.32321,32
35.9240882,-84.323211,32
35.9240887,-84.3232119,32
35.9240893,-84.3232129,32
35.9240897,-84.3232137,32
35.9240902,-84.3232144,32
35.9240906,-84.323215,32
35.924091,-84.3232156,31
35.9240915,-84.3232163,31
35.9240919,-84.3232168,31
35.9240923,-84.3232172,31
35.9240927,-84.3232176,31
35.924093,-84.3232182,30
35.9240933,-84.3232186,30
35.9240936,-84.323219,30
35.9240938,-84.3232191,30
35.924094,-84.3232194,30
35.9240941,-84.3232196,32
35.9240942,-84.3232198,32
35.9240942,-84.3232199,32
35.9240942,-84.3232201,32
35.9240941,-84.3232202,32
35.924094,-84.3232202,32
35.9240939,-84.3232202,32
35.9240937,-84.3232201,32
35.9240935,-84.3232199,32
35.9240932,-84.3232196,32
35.924093,-84.3232192,32
35.9240927,-84.3232187,31
35.9240924,-84.3232182,31
35.9240922,-84.3232177,31
35.9240919,-84.3232171,31
35.9240917,-84.3232164,31
35.9240913,-84.3232156,31
35.924091,-84.3232148,31
35.9240906,-84.3232139,31
35.92409,-84.323213,31
35.9240895,-84.323212,31
35.924089,-84.323211,31
35.9240885,-84.32321,31
35.924088,-84.3232088,31
35.9240874,-84.3232076,31
35.9240867,-84.3232066,31
35.9240859,-84.3232055,31
35.9240851,-84.3232045,32
35.9240843,-84.3232034,32
35.9240836,-84.3232024,32
35.9240828,-84.3232013,32
35.924082,-84.3232003,32
35.9240813,-84.3231994,32
35.9240806,-84.3231984,32
35.9240798,-84.3231974,32
35.9240791,-84.3231964,32
35.9240784,-84.3231954,32
35.9240776,-84.3231944,32
35.9240769,-84.3231933,34
35.9240761,-84.3231923,34
35.9240754,-84.3231913,34
35.9240748,-84.3231904,34
35.9240741,-84.3231895,34
35.9240736,-84.3231885,32
35.9240726,-84.3231873,32
35.9240722,-84.3231865,32
35.9240718,-84.3231858,32
35.9240715,-84.3231849,32
35.924071,-84.3231842,31
35.9240704,-84.3231836,31
35.9240699,-84.323183,31
35.9240695,-84.3231823,31
35.9240691,-84.3231817,31
35.9240687,-84.3231811,31
35.9240683,-84.3231807,32
35.9240679,-84.3231802,32
35.9240676,-84.3231799,32
35.9240673,-84.3231795,32
35.9240669,-84.3231791,32
35.9240667,-84.3231788,29
35.9240663,-84.3231785,29
35.924066,-84.3231782,29
35.9240657,-84.3231779,29
35.9240655,-84.3231776,29
35.9240653,-84.3231772,33
35.9240652,-84.3231769,33
35.9240651,-84.3231767,33
35.9240651,-84.3231766,33
35.9240651,-84.3231764,33
35.9240651,-84.3231763,33
35.924065,-84.3231762,33
35.924065,-84.3231761,33
35.9240649,-84.323176,33
35.9240649,-84.3231759,33
35.9240649,-84.3231759,33
35.9240649,-84.3231758,33
35.9240648,-84.3231759,33
35.9240648,-84.3231759,33
35.9240649,-84.3231761,33
35.9240648,-84.3231762,33
35.9240648,-84.3231764,33
35.9240649,-84.3231765,33
35.924065,-84.3231766,33
35.9240653,-84.3231767,33
35.9240653,-84.323177,33
35.9240655,-84.3231772,33
35.9240655,-84.3231773,33
35.9240653,-84.3231775,34
35.9240652,-84.3231776,34
35.924065,-84.3231777,34
35.9240648,-84.3231778,34
35.9240647,-84.3231779,34
35.9240646,-84.3231781,31
35.9240644,-84.3231782,31
35.9240642,-84.3231783,31
35.9240641,-84.3231783,31
35.924064,-84.3231784,31
35.9240638,-84.3231786,32
35.9240637,-84.3231788,32
35.9240636,-84.323179,32
35.9240635,-84.3231793,32
35.9240635,-84.3231797,32
35.9240634,-84.32318,32
35.9240634,-84.3231803,30
35.9240635,-84.3231806,30
35.9240636,-84.3231808,30
35.9240637,-84.323181,30
35.9240638,-84.3231812,30
35.9240638,-84.3231814,30
35.9240637,-84.3231816,30
35.9240637,-84.3231817,30
35.9240637,-84.3231818,30
35.9240638,-84.3231819,30
35.9240638,-84.3231821,29
35.9240639,-84.3231824,29
35.924064,-84.3231826,29
35.924064,-84.3231828,29
35.9240639,-84.323183,29
35.9240639,-84.3231833,29
35.9240638,-84.3231834,28
35.9240638,-84.3231836,28
35.9240636,-84.3231837,28
35.9240635,-84.3231838,28
35.9240633,-84.3231838,28
35.9240632,-84.3231838,30
35.924063,-84.3231839,30
35.9240628,-84.323184,30
35.9240626,-84.3231843,30
35.9240625,-84.3231845,30
35.9240624,-84.3231848,31
35.9240623,-84.3231852,31
35.9240621,-84.3231856,31
35.9240618,-84.323186,31
35.9240618,-84.3231863,31
35.9240617,-84.3231865,30
35.9240618,-84.3231867,30
35.9240619,-84.3231869,30
35.924062,-84.3231871,30
35.9240621,-84.3231874,30
35.924062,-84.3231877,30
35.9240618,-84.3231879,30
35.9240618,-84.323188,30
35.9240619,-84.3231879,30
35.924062,-84.3231877,30
35.9240621,-84.3231874,30
35.9240621,-84.3231873,30
35.9240623,-84.3231872,30
35.9240623,-84.3231871,30
35.9240625,-84.3231871,30
35.9240628,-84.3231869,30
35.924063,-84.3231868,31
35.9240632,-84.3231868,31
35.9240633,-84.3231868,31
35.9240636,-84.3231866,31
35.9240638,-84.3231866,31
35.9240639,-84.3231865,31
35.9240642,-84.3231861,31
35.9240644,-84.323186,31
35.9240646,-84.323186,31
35.9240647,-84.3231862,31
35.9240649,-84.3231863,32
35.9240649,-84.3231865,32
35.924065,-84.3231865,32
35.9240651,-84.3231867,32
35.9240651,-84.3231867,32
35.9240652,-84.3231865,32
35.9240653,-84.3231865,31
35.9240643,-84.3231851,31
35.9240655,-84.3231859,31
35.9240662,-84.3231845,31
35.9240612,-84.3231918,31
35.9240583,-84.3231981,28
35.9240638,-84.323204,28
35.9240652,-84.3231929,28
35.9240672,-84.3231921,28
35.924068,-84.3231941,28
35.9240669,-84.3231986,29
35.9240676,-84.323199,29
35.9240685,-84.3231981,29
35.9240694,-84.3231974,29
35.92407,-84.3231967,29
35.9240705,-84.323196,29
35.9240708,-84.3231951,32
35.924071,-84.3231939,32
35.9240712,-84.3231927,32
35.9240717,-84.3231907,32
35.9240729,-84.3231876,32
35.9240739,-84.3231842,26
35.924074,-84.3231835,26
35.9240743,-84.3231831,26
35.9240749,-84.3231822,26
35.9240756,-84.3231819,26
35.9240755,-84.3231828,30
35.9240759,-84.3231814,30
35.9240759,-84.3231802,30
35.9240758,-84.3231791,30
35.9240761,-84.3231774,30
35.9240762,-84.323176,30
35.9240765,-84.3231747,31
35.9240769,-84.3231733,31
35.9240772,-84.3231721,31
35.9240774,-84.3231711,31
35.9240777,-84.32317,31
35.9240779,-84.3231689,30
35.9240782,-84.3231679,30
35.9240786,-84.323167,30
35.9240791,-84.3231661,30
35.9240796,-84.3231651,30
35.92408,-84.3231643,29
35.9240803,-84.3231635,29
35.9240806,-84.3231628,29
35.924081,-84.3231624,29
35.9240812,-84.3231619,29
35.9240813,-84.3231611,29
35.9240815,-84.3231603,31
35.9240816,-84.3231596,31
35.9240815,-84.3231599,31
35.9240815,-84.3231595,31
35.9240813,-84.3231592,31
35.924081,-84.323159,31
35.9240806,-84.3231586,31
35.9240803,-84.3231584,31
35.9240806,-84.3231573,31
35.9240811,-84.3231567,31
35.9240812,-84.3231572,30
35.9240817,-84.3231568,30
35.9240823,-84.3231566,30
35.9240832,-84.3231563,30
35.9240842,-84.323156,30
35.9240852,-84.3231559,30
35.9240861,-84.3231559,30
35.924087,-84.3231561,30
35.924088,-84.3231563,30
35.9240888,-84.3231565,30
35.9240896,-84.3231568,30
35.9240904,-84.3231571,27
35.9240911,-84.3231575,27
35.9240918,-84.3231578,27
35.9240923,-84.3231582,27
35.9240927,-84.3231588,27
35.9240931,-84.3231591,27
35.9240934,-84.3231595,27
35.9240936,-84.32316,27
35.9240939,-84.3231602,27
35.9240942,-84.3231605,27
35.9240945,-84.3231608,27
35.924095,-84.3231611,28
35.9240956,-84.3231614,28
35.9240962,-84.3231618,28
35.9240968,-84.3231622,28
35.9240976,-84.3231625,28
35.9240983,-84.3231629,28
35.9240991,-84.3231634,28
35.9240998,-84.3231639,28
35.9241006,-84.3231641,28
35.9241014,-84.3231645,28
35.9241021,-84.3231648,28
35.9241029,-84.3231652,28
35.9241035,-84.3231656,28
35.9241041,-84.323166,28
35.9241046,-84.3231665,28
35.924105,-84.323167,25
35.9241054,-84.3231675,25
35.9241056,-84.3231679,25
35.9241058,-84.3231682,25
35.9241059,-84.3231685,25
35.924106,-84.3231689,23
35.9241061,-84.3231693,23
35.9241061,-84.3231698,23
35.9241061,-84.3231703,23
35.924106,-84.3231707,23
35.9241059,-84.323171,23
35.9241058,-84.3231713,28
35.9241057,-84.3231716,28
35.9241057,-84.323172,28
35.9241056,-84.3231722,28
35.9241056,-84.3231724,28
35.9241055,-84.3231726,31
35.9241054,-84.3231729,31
35.9241053,-84.3231732,31
35.9241053,-84.3231736,31
35.9241052,-84.3231739,31
35.924105,-84.3231743,31
35.924105,-84.3231746,31
35.9241049,-84.3231749,31
35.9241037,-84.3231751,31
35.924104,-84.3231766,31
35.9240997,-84.3231788,31
35.9240962,-84.3231845,31
35.9240972,-84.3231858,31
35.9240977,-84.3231859,31
35.9240951,-84.3231886,31
35.9240975,-84.3231869,31
35.9240962,-84.3231871,28
35.9240947,-84.323188,28
35.9240929,-84.3231888,28
35.9240914,-84.3231889,28
35.9240902,-84.3231888,28
35.9240891,-84.3231885,33
35.9240883,-84.3231882,33
35.9240878,-84.3231879,33
35.9240875,-84.3231874,33
35.9240874,-84.323187,33
35.9240875,-84.3231867,33
35.9240878,-84.3231865,34
35.924088,-84.3231864,34
35.9240881,-84.3231861,34
35.9240882,-84.3231859,34
35.9240883,-84.3231856,34
35.9240883,-84.3231854,31
35.9240884,-84.3231851,31
35.9240885,-84.3231848,31
35.9240885,-84.3231846,31
35.9240885,-84.3231844,31
35.9240885,-84.3231841,31
35.9240887,-84.3231838,31
35.9240888,-84.3231835,31
35.9240889,-84.3231833,31
35.924089,-84.3231831,31
35.9240892,-84.3231829,31
35.9240894,-84.3231826,31
35.9240896,-84.3231824,31
35.9240897,-84.3231822,31
35.92409,-84.323182,31
35.9240901,-84.3231819,31
35.9240904,-84.3231818,32
35.9240907,-84.3231817,32
35.9240912,-84.3231816,32
35.9240916,-84.3231815,32
35.924092,-84.3231816,32
35.9240925,-84.3231816,32
35.924093,-84.3231817,32
35.9240934,-84.3231818,32
35.924094,-84.3231818,32
35.9240945,-84.3231817,32
35.9240951,-84.3231817,32
35.9240955,-84.3231816,32
35.9240958,-84.3231818,32
35.9240961,-84.3231821,32
35.9240965,-84.3231823,32
35.9240968,-84.3231823,32
35.9240969,-84.3231823,30
35.9240972,-84.3231823,30
35.9240974,-84.3231822,30
35.9240976,-84.3231821,30
35.9240976,-84.323182,30
35.9240975,-84.3231822,29
35.9240972,-84.3231822,29
35.924097,-84.3231822,29
35.9240967,-84.3231819,29
35.9240963,-84.3231817,29
35.924096,-84.3231816,28
35.9240956,-84.3231815,28
35.9240953,-84.3231813,28
35.924095,-84.323181,28
35.9240948,-84.3231807,28
35.9240943,-84.3231803,29
35.924094,-84.3231801,29
35.9240937,-84.3231799,29
35.9240935,-84.3231796,29
35.9240932,-84.3231792,29
35.924093,-84.3231787,29
35.9240926,-84.3231783,28
35.9240921,-84.3231781,28
35.9240919,-84.3231776,28
35.9240919,-84.3231774,28
35.9240918,-84.323177,28
35.9240918,-84.3231768,28
35.9240919,-84.3231764,28
35.924092,-84.3231759,28
35.9240921,-84.3231755,28
35.9240922,-84.3231753,28
35.9240923,-84.3231752,30
35.9240924,-84.3231749,30
35.9240926,-84.3231749,30
35.9240928,-84.3231748,30
35.9240931,-84.3231745,30
35.9240934,-84.3231742,28
35.9240937,-84.3231743,28
35.9240939,-84.3231745,28
35.9240942,-84.3231751,28
35.9240945,-84.3231757,28
35.9240948,-84.3231762,28
35.9240953,-84.3231765,29
35.9240956,-84.323177,29
35.924096,-84.3231774,29
35.9240963,-84.3231776,29
35.9240966,-84.323178,29
35.9240969,-84.3231785,28
35.9240971,-84.323179,28
35.9240973,-84.3231793,28
35.9240975,-84.3231798,28
35.9240978,-84.3231803,28
35.9240979,-84.3231806,27
35.924098,-84.3231809,27
35.9240982,-84.3231813,27
35.9240983,-84.3231815,27
35.9240984,-84.3231818,27
35.9240985,-84.323182,28
35.9240986,-84.3231822,28
35.9240986,-84.3231824,28
35.9240986,-84.3231826,28
35.9240986,-84.3231829,28
35.9240987,-84.3231833,28
35.9240989,-84.3231835,28
35.9240991,-84.3231833,28
35.9240992,-84.3231833,28
35.9240994,-84.3231833,28
35.9240995,-84.3231835,28
35.9240998,-84.3231835,27
35.9241001,-84.3231834,27
35.9241003,-84.3231834,27
35.9241004,-84.3231835,27
35.9241006,-84.3231837,27
35.9241009,-84.3231833,27
35.9241007,-84.3231838,28
35.9241007,-84.3231838,28
35.9241006,-84.323184,28
35.9241006,-84.3231841,28
35.9241006,-84.3231842,28
35.9241004,-84.3231845,30
35.9241002,-84.3231846,30
35.9241001,-84.323185,30
35.9240999,-84.3231854,30
35.9240998,-84.3231856,30
35.9240996,-84.3231859,30
35.9240996,-84.323186,30
35.9240993,-84.3231859,30
35.9240991,-84.3231861,30
35.9240988,-84.3231858,30
35.9240985,-84.3231855,30
35.9240982,-84.3231848,28
35.9240978,-84.3231846,28
35.9240972,-84.3231844,28
35.9240967,-84.3231843,28
35.9240963,-84.3231841,28
35.9240959,-84.3231838,28
35.9240956,-84.3231836,28
35.924095,-84.3231834,28
35.9240946,-84.3231826,28
35.9240941,-84.3231816,28
35.9240936,-84.3231812,29
35.9240931,-84.3231807,29
35.9240927,-84.3231802,29
35.9240922,-84.32318,29
35.9240915,-84.3231797,29
35.924091,-84.3231795,30
35.9240905,-84.3231792,30
35.92409,-84.323179,30
35.9240897,-84.3231787,30
35.9240894,-84.3231784,30
35.924089,-84.3231781,30
35.9240887,-84.3231779,33
35.9240883,-84.3231776,33
35.924088,-84.3231773,33
35.9240878,-84.3231771,33
35.9240877,-84.3231771,33
35.9240876,-84.323177,33
35.9240876,-84.3231772,33
35.9240876,-84.3231777,33
35.9240877,-84.3231782,33
35.9240879,-84.3231786,33
35.9240879,-84.3231788,33
35.924088,-84.3231789,33
35.9240881,-84.3231793,33
35.9240882,-84.3231799,33
35.9240882,-84.3231806,33
35.9240883,-84.3231808,29
35.9240884,-84.323181,29
35.9240885,-84.3231812,29
35.9240887,-84.3231818,29
35.9240888,-84.3231824,29
35.9240888,-84.3231827,27
35.924089,-84.3231832,27
35.9240892,-84.3231837,27
35.9240893,-84.3231841,27
35.9240896,-84.3231846,27
35.9240898,-84.323185,27
35.9240899,-84.3231853,27
35.9240902,-84.3231857,27
35.9240904,-84.3231863,27
35.9240906,-84.3231868,27
35.9240908,-84.3231875,27
35.924091,-84.3231881,29
35.9240913,-84.3231888,29
35.9240915,-84.3231895,29
35.9240918,-84.3231902,29
35.9240919,-84.3231909,29
35.9240922,-84.3231917,30
35.9240925,-84.3231921,30
35.9240926,-84.3231927,30
35.9240928,-84.3231934,30
35.924093,-84.323194,30
35.9240924,-84.323194,34
35.9240924,-84.3231945,34
35.9240927,-84.323195,34
35.9240929,-84.3231959,34
35.924093,-84.3231965,34
35.924093,-84.3231971,35
35.9240929,-84.3231976,35
35.9240928,-84.3231983,35
35.9240926,-84.3231989,35
35.9240923,-84.3231993,35
35.924092,-84.3232,35
35.9240916,-84.3232007,34
35.9240912,-84.3232013,34
35.9240908,-84.3232019,34
35.9240903,-84.3232027,34
35.9240899,-84.3232033,34
35.9240896,-84.3232039,34
35.9240894,-84.3232046,34
35.9240894,-84.3232053,34
35.9240894,-84.3232057,34
35.9240893,-84.3232064,34
35.9240892,-84.3232071,34
35.9240891,-84.3232077,34
35.9240889,-84.3232082,34
35.9240889,-84.3232088,34
35.9240887,-84.3232092,34
35.9240885,-84.3232095,32
35.9240883,-84.3232098,32
35.9240881,-84.32321,32
35.9240881,-84.3232098,32
35.9240877,-84.3232097,32
35.9240873,-84.3232099,32
35.924087,-84.32321,29
35.9240866,-84.3232101,29
35.924086,-84.3232101,29
35.9240855,-84.3232101,29
35.9240849,-84.3232102,29
35.9240845,-84.3232102,28
35.9240841,-84.3232102,28
35.9240838,-84.3232102,28
35.9240836,-84.3232103,28
35.9240833,-84.3232104,28
35.9240828,-84.3232102,29
35.9240822,-84.32321,29
35.9240818,-84.3232101,29
35.9240815,-84.3232103,29
35.9240812,-84.3232103,29
35.924081,-84.3232104,29
35.924081,-84.3232106,29
35.9240811,-84.3232108,29
35.9240811,-84.3232109,29
35.9240813,-84.323211,29
35.9240815,-84.3232112,29
35.9240816,-84.3232113,27
35.9240817,-84.3232116,27
35.9240818,-84.3232119,27
35.9240821,-84.3232123,27
35.9240823,-84.3232127,27
35.9240825,-84.323213,25
35.9240825,-84.3232131,25
35.9240824,-84.3232133,25
35.9240825,-84.3232137,25
35.9240827,-84.3232143,25
35.9240828,-84.3232148,28
35.924083,-84.3232154,28
35.9240832,-84.323216,28
35.9240834,-84.3232167,28
35.9240837,-84.3232174,28
35.924084,-84.3232182,30
35.9240842,-84.323219,30
35.9240845,-84.3232196,30
35.9240847,-84.3232201,30
35.9240851,-84.3232208,30
35.9240855,-84.3232216,30
35.9240859,-84.3232224,30
35.9240863,-84.3232231,30
35.9240867,-84.3232237,30
35.9240871,-84.3232243,30
35.9240876,-84.3232249,30
35.9240881,-84.3232253,29
35.9240886,-84.3232259,29
35.9240892,-84.3232265,29
35.9240897,-84.3232271,29
35.9240903,-84.3232278,29
35.9240908,-84.3232284,27
35.9240912,-84.3232289,27
35.9240917,-84.3232293,27
35.9240923,-84.3232299,27
35.9240929,-84.3232305,27
35.9240933,-84.3232308,27
35.9240937,-84.3232312,27
35.9240942,-84.3232318,27
35.9240947,-84.3232324,27
35.9240952,-84.323233,27
35.9240956,-84.3232336,27
35.9240961,-84.323234,39
35.9240966,-84.3232346,39
35.924097,-84.3232352,39
35.9240973,-84.3232358,39
35.9240975,-84.3232362,39
35.9240977,-84.3232367,39
35.9240979,-84.3232371,40
35.9240982,-84.3232375,40
35.9240985,-84.323238,40
35.9240987,-84.3232385,40
35.9240988,-84.3232391,40
35.924099,-84.3232397,39
35.9240993,-84.3232404,39
35.9240994,-84.323241,39
35.9240995,-84.3232415,39
35.9240995,-84.3232419,39
35.9240995,-84.3232425,39
35.9240996,-84.323243,39
35.9240997,-84.3232436,39
35.9240997,-84.3232441,39
35.9240998,-84.3232446,39
35.9240998,-84.323245,39
35.9240998,-84.3232453,39
35.9240998,-84.3232457,39
35.9240998,-84.323246,39
35.9240997,-84.3232463,39
35.9240996,-84.3232467,39
35.9240995,-84.3232472,39
35.9240994,-84.3232475,39
35.9240993,-84.3232477,39
35.9240992,-84.3232479,39
35.9240991,-84.3232481,39
35.9240991,-84.3232482,39
35.9240991,-84.3232484,39
35.9240991,-84.3232488,39
35.9240988,-84.3232489,39
35.9240985,-84.3232491,39
35.9240983,-84.3232493,39
35.9240981,-84.3232496,39
35.9240979,-84.3232499,39
35.9240978,-84.3232502,39
35.9240976,-84.3232506,39
35.9240976,-84.3232511,38
35.9240976,-84.3232517,38
35.9240976,-84.3232522,38
35.9240976,-84.3232528,38
35.9240975,-84.3232535,38
35.9240975,-84.3232541,38
35.9240976,-84.3232547,39
35.9240975,-84.3232552,39
35.9240974,-84.3232555,39
35.9240973,-84.3232559,39
35.924097,-84.3232562,39
35.9240967,-84.3232565,39
35.9240967,-84.3232567,39
35.9240965,-84.323257,39
35.9240964,-84.3232574,39
35.9240962,-84.3232579,39
35.9240962,-84.3232583,39
35.9240962,-84.3232586,-2
35.924096,-84.3232588,-2
35.9240958,-84.3232587,-2
35.9240955,-84.3232585,-2
35.9240953,-84.3232582,-2
35.9240949,-84.3232578,-2
35.9240947,-84.3232572,32
35.9240945,-84.3232566,32
35.9240941,-84.3232559,32
35.9240939,-84.3232553,32
35.9240939,-84.3232549,32
35.9240937,-84.3232543,40
35.9240937,-84.3232537,40
35.9240937,-84.3232532,40
35.9240937,-84.3232528,40
35.9240936,-84.3232524,40
35.9240937,-84.3232521,40
35.9240936,-84.3232517,40
35.9240935,-84.3232512,40
35.9240934,-84.3232508,40
35.9240933,-84.3232503,40
35.9240932,-84.3232498,40
35.924093,-84.3232495,40
35.9240928,-84.3232491,40
35.9240926,-84.3232487,40
35.9240925,-84.3232485,40
35.9240922,-84.3232483,39
35.9240919,-84.3232479,39
35.9240918,-84.3232478,39
